digraph Tree {
node [shape=box, style="filled, rounded", color="black", fontname="helvetica"] ;
edge [fontname="helvetica"] ;
0 [label="petal length (cm) <= 2.6\ngini = 0.66\nsamples = 94\nvalue = [58, 47, 45]\nclass = setosa", fillcolor="#fcf2ea"] ;
1 [label="gini = 0.0\nsamples = 34\nvalue = [58, 0, 0]\nclass = setosa", fillcolor="#e58139"] ;
0 -> 1 [labeldistance=2.5, labelangle=45, headlabel="True"] ;
2 [label="petal length (cm) <= 4.75\ngini = 0.5\nsamples = 60\nvalue = [0, 47, 45]\nclass = versicolor", fillcolor="#f7fefa"] ;
0 -> 2 [labeldistance=2.5, labelangle=-45, headlabel="False"] ;
3 [label="gini = 0.0\nsamples = 25\nvalue = [0, 42, 0]\nclass = versicolor", fillcolor="#39e581"] ;
2 -> 3 ;
4 [label="petal length (cm) <= 4.85\ngini = 0.18\nsamples = 35\nvalue = [0, 5, 45]\nclass = virginica", fillcolor="#8f4fe8"] ;
2 -> 4 ;
5 [label="sepal length (cm) <= 5.95\ngini = 0.5\nsamples = 3\nvalue = [0, 3, 3]\nclass = versicolor", fillcolor="#ffffff"] ;
4 -> 5 ;
6 [label="gini = 0.0\nsamples = 1\nvalue = [0, 3, 0]\nclass = versicolor", fillcolor="#39e581"] ;
5 -> 6 ;
7 [label="gini = 0.0\nsamples = 2\nvalue = [0, 0, 3]\nclass = virginica", fillcolor="#8139e5"] ;
5 -> 7 ;
8 [label="petal length (cm) <= 5.15\ngini = 0.09\nsamples = 32\nvalue = [0, 2, 42]\nclass = virginica", fillcolor="#8742e6"] ;
4 -> 8 ;
9 [label="petal width (cm) <= 1.7\ngini = 0.24\nsamples = 11\nvalue = [0, 2, 12]\nclass = virginica", fillcolor="#965ae9"] ;
8 -> 9 ;
10 [label="sepal length (cm) <= 6.15\ngini = 0.5\nsamples = 3\nvalue = [0, 2, 2]\nclass = versicolor", fillcolor="#ffffff"] ;
9 -> 10 ;
11 [label="petal width (cm) <= 1.55\ngini = 0.44\nsamples = 2\nvalue = [0, 1, 2]\nclass = virginica", fillcolor="#c09cf2"] ;
10 -> 11 ;
12 [label="gini = 0.0\nsamples = 1\nvalue = [0, 0, 2]\nclass = virginica", fillcolor="#8139e5"] ;
11 -> 12 ;
13 [label="gini = 0.0\nsamples = 1\nvalue = [0, 1, 0]\nclass = versicolor", fillcolor="#39e581"] ;
11 -> 13 ;
14 [label="gini = 0.0\nsamples = 1\nvalue = [0, 1, 0]\nclass = versicolor", fillcolor="#39e581"] ;
10 -> 14 ;
15 [label="gini = 0.0\nsamples = 8\nvalue = [0, 0, 10]\nclass = virginica", fillcolor="#8139e5"] ;
9 -> 15 ;
16 [label="gini = 0.0\nsamples = 21\nvalue = [0, 0, 30]\nclass = virginica", fillcolor="#8139e5"] ;
8 -> 16 ;
}